{"sizes":[3,10,10,1],"layers":[{"v1":{},"v2":{},"v3":{}},{"0":{"bias":0.05395546555519104,"weights":{"v1":-0.08110999315977097,"v2":0.0857027992606163,"v3":-0.041338007897138596}},"1":{"bias":0.05303781107068062,"weights":{"v1":-0.07426880300045013,"v2":-0.050052840262651443,"v3":0.1076829582452774}},"2":{"bias":0.06990411877632141,"weights":{"v1":0.11055991053581238,"v2":-0.14462928473949432,"v3":0.14222843945026398}},"3":{"bias":0.039058491587638855,"weights":{"v1":0.0972161740064621,"v2":-0.17009598016738892,"v3":0.02592846378684044}},"4":{"bias":-0.13855597376823425,"weights":{"v1":0.10266665369272232,"v2":0.11360769718885422,"v3":0.10928510874509811}},"5":{"bias":0.09651052951812744,"weights":{"v1":0.05456512048840523,"v2":0.010584767907857895,"v3":-0.10068970918655396}},"6":{"bias":0.1185479462146759,"weights":{"v1":0.16089317202568054,"v2":0.06422599405050278,"v3":-0.1669854074716568}},"7":{"bias":0.10971374064683914,"weights":{"v1":0.02507789060473442,"v2":0.024155907332897186,"v3":-0.11605539172887802}},"8":{"bias":0.04970364645123482,"weights":{"v1":-0.12803708016872406,"v2":0.05255435034632683,"v3":0.03178638592362404}},"9":{"bias":-0.09291592240333557,"weights":{"v1":-0.09056990593671799,"v2":-0.038290176540613174,"v3":-0.1302834004163742}}},{"0":{"bias":0.06544073671102524,"weights":{"0":0.021234167739748955,"1":0.043008387088775635,"2":-0.03158637508749962,"3":0.10408362746238708,"4":-0.026735646650195122,"5":0.11401969939470291,"6":-0.15484336018562317,"7":-0.17463429272174835,"8":-0.16817323863506317,"9":-0.012559890747070312}},"1":{"bias":-0.05670220032334328,"weights":{"0":0.07697244733572006,"1":0.04155046492815018,"2":0.028336593881249428,"3":0.14927193522453308,"4":0.029098333790898323,"5":0.0004998776712454855,"6":0.19219449162483215,"7":0.1611863523721695,"8":-0.12707023322582245,"9":-0.06743257492780685}},"2":{"bias":-0.10875765234231949,"weights":{"0":-0.04127915948629379,"1":-0.014868752099573612,"2":-0.07818979769945145,"3":0.2148427963256836,"4":0.21106502413749695,"5":0.13445478677749634,"6":0.06284627318382263,"7":0.12882237136363983,"8":0.08407562971115112,"9":0.014240529388189316}},"3":{"bias":-0.13030482828617096,"weights":{"0":-0.0936049222946167,"1":0.20448265969753265,"2":0.1657441109418869,"3":-0.02784271351993084,"4":0.013303038664162159,"5":-0.12747704982757568,"6":0.12668147683143616,"7":-0.01703699305653572,"8":-0.13146057724952698,"9":0.16966423392295837}},"4":{"bias":-0.03531487286090851,"weights":{"0":-0.15833304822444916,"1":0.07713284343481064,"2":0.19854089617729187,"3":-0.10145429521799088,"4":-0.1485261619091034,"5":-0.15984845161437988,"6":0.0065518394112586975,"7":0.1779780238866806,"8":0.1324089765548706,"9":-0.1561620533466339}},"5":{"bias":-0.07526890933513641,"weights":{"0":-0.028465690091252327,"1":-0.008458116091787815,"2":-0.0022920684423297644,"3":-0.1318625658750534,"4":0.17836613953113556,"5":-0.12358786165714264,"6":-0.017720382660627365,"7":-0.07921141386032104,"8":-0.15301242470741272,"9":-0.1298331469297409}},"6":{"bias":0.17756789922714233,"weights":{"0":-0.018579591065645218,"1":0.03485107421875,"2":0.10618715733289719,"3":-0.06965869665145874,"4":0.08681797981262207,"5":0.04326605424284935,"6":0.17670002579689026,"7":0.03171037137508392,"8":-0.03214220330119133,"9":0.09450878947973251}},"7":{"bias":0.010351818054914474,"weights":{"0":-0.05966535583138466,"1":0.009982418268918991,"2":0.18320916593074799,"3":0.11783824115991592,"4":-0.13904163241386414,"5":0.050114706158638,"6":-0.04586728289723396,"7":-0.12609396874904633,"8":-0.005054558627307415,"9":-0.06821121275424957}},"8":{"bias":0.1111241951584816,"weights":{"0":-0.07621346414089203,"1":0.0034608813002705574,"2":-0.025596830993890762,"3":0.011294981464743614,"4":0.12131211161613464,"5":-0.01172216422855854,"6":-0.07376056164503098,"7":-0.11701155453920364,"8":0.14767637848854065,"9":0.00575743755325675}},"9":{"bias":0.06538568437099457,"weights":{"0":0.18873031437397003,"1":0.04713696241378784,"2":0.10634355992078781,"3":0.09145858883857727,"4":-0.040646519511938095,"5":-0.07267922908067703,"6":-0.029229430481791496,"7":0.019453460350632668,"8":0.17424434423446655,"9":-0.15021352469921112}}},{"value":{"bias":-0.5845575332641602,"weights":{"0":-0.45239463448524475,"1":-0.29129892587661743,"2":-0.497629314661026,"3":-0.2967458665370941,"4":-0.25787535309791565,"5":-0.15373076498508453,"6":-0.5304927825927734,"7":-0.10951075702905655,"8":-0.21595057845115662,"9":-0.32446005940437317}}}],"outputLookup":true,"inputLookup":true,"activation":"sigmoid","trainOpts":{"iterations":20000,"errorThresh":0.005,"log":true,"logPeriod":100,"learningRate":0.3,"momentum":0.1,"callbackPeriod":10,"beta1":0.9,"beta2":0.999,"epsilon":1e-8}}
