{"sizes":[3,10,10,1],"layers":[{"first":{},"second":{},"third":{}},{"0":{"bias":-0.01876639761030674,"weights":{"first":-0.04053002968430519,"second":0.02416943572461605,"third":0.0714273601770401}},"1":{"bias":-0.19765621423721313,"weights":{"first":-0.026751872152090073,"second":0.1688036322593689,"third":-0.15612183511257172}},"2":{"bias":-0.0070355613715946674,"weights":{"first":-0.07654037326574326,"second":0.18716655671596527,"third":-0.08391887694597244}},"3":{"bias":0.10569411516189575,"weights":{"first":0.12882858514785767,"second":-0.11907520145177841,"third":0.048844113945961}},"4":{"bias":0.09623311460018158,"weights":{"first":-0.09706997126340866,"second":0.19145514070987701,"third":-0.14481616020202637}},"5":{"bias":0.12357190996408463,"weights":{"first":0.11604070663452148,"second":-0.06589702516794205,"third":0.0695146843791008}},"6":{"bias":0.015686877071857452,"weights":{"first":0.07704588025808334,"second":0.1775352656841278,"third":0.002907748334109783}},"7":{"bias":-0.14822444319725037,"weights":{"first":0.023975109681487083,"second":0.026515720412135124,"third":0.19603407382965088}},"8":{"bias":0.00916097778826952,"weights":{"first":0.00941899698227644,"second":-0.13715028762817383,"third":0.062302589416503906}},"9":{"bias":0.12336066365242004,"weights":{"first":0.10205007344484329,"second":0.033116694539785385,"third":-0.03336327522993088}}},{"0":{"bias":-0.0832032635807991,"weights":{"0":-0.0931268259882927,"1":-0.15261070430278778,"2":0.1287742257118225,"3":0.02012471668422222,"4":-0.16791678965091705,"5":-0.15108974277973175,"6":0.11087616533041,"7":0.013328476808965206,"8":-0.09552458673715591,"9":0.1381199061870575}},"1":{"bias":0.08416084200143814,"weights":{"0":0.06160297989845276,"1":0.19604910910129547,"2":-0.05136912316083908,"3":0.13471728563308716,"4":-0.062295928597450256,"5":-0.01855526491999626,"6":-0.16813762485980988,"7":-0.09820164740085602,"8":-0.06584682315587997,"9":0.10620412975549698}},"2":{"bias":0.043148916214704514,"weights":{"0":-0.10036306828260422,"1":0.14811594784259796,"2":-0.005725534167140722,"3":0.09457143396139145,"4":-0.07585001736879349,"5":0.1284337341785431,"6":0.16635212302207947,"7":-0.0332612618803978,"8":-0.18637390434741974,"9":0.09801772981882095}},"3":{"bias":-0.13107822835445404,"weights":{"0":0.06380687654018402,"1":0.20035399496555328,"2":-0.020326457917690277,"3":-0.05223235487937927,"4":-0.061686743050813675,"5":0.13428421318531036,"6":0.07257511466741562,"7":-0.05508463457226753,"8":0.01775508187711239,"9":-0.13553303480148315}},"4":{"bias":0.2139500081539154,"weights":{"0":-0.14754249155521393,"1":-0.05680439621210098,"2":-0.04182576388120651,"3":0.1863606721162796,"4":0.10395016521215439,"5":0.058492571115493774,"6":0.054204028099775314,"7":0.025352617725729942,"8":0.20427967607975006,"9":0.1048346757888794}},"5":{"bias":0.18275600671768188,"weights":{"0":0.031043795868754387,"1":-0.09160052984952927,"2":-0.14729547500610352,"3":-0.10957922041416168,"4":-0.00037730863550677896,"5":-0.1328894942998886,"6":0.12519356608390808,"7":0.09997145086526871,"8":0.1492128223180771,"9":-0.09721188247203827}},"6":{"bias":0.19825464487075806,"weights":{"0":-0.1744413524866104,"1":-0.18619856238365173,"2":-0.0669700875878334,"3":-0.03924630209803581,"4":0.1648245006799698,"5":-0.13056060671806335,"6":0.020903831347823143,"7":-0.04590395465493202,"8":0.09454299509525299,"9":-0.057070646435022354}},"7":{"bias":0.1776786744594574,"weights":{"0":0.17505785822868347,"1":-0.10968786478042603,"2":-0.040287259966135025,"3":-0.00782849546521902,"4":0.18665005266666412,"5":-0.07602487504482269,"6":-0.09292624890804291,"7":0.06539168953895569,"8":-0.09311594069004059,"9":0.09852021932601929}},"8":{"bias":0.2241915613412857,"weights":{"0":-0.10777377337217331,"1":0.17491267621517181,"2":0.20057688653469086,"3":0.2178923487663269,"4":-0.144363671541214,"5":-0.001965443603694439,"6":-0.13467489182949066,"7":0.16993312537670135,"8":0.11832777410745621,"9":0.06553031504154205}},"9":{"bias":-0.14273498952388763,"weights":{"0":-0.0017542404821142554,"1":-0.0013104138197377324,"2":0.07835205644369125,"3":-0.087040476500988,"4":-0.009736108593642712,"5":0.019932206720113754,"6":-0.1032329723238945,"7":-0.0798146054148674,"8":0.13973496854305267,"9":-0.13175247609615326}}},{"next":{"bias":-0.28553512692451477,"weights":{"0":-0.35358893871307373,"1":-0.14911961555480957,"2":-0.2668249011039734,"3":-0.18074166774749756,"4":-0.42648178339004517,"5":-0.05710573121905327,"6":-0.28890547156333923,"7":-0.4262857735157013,"8":-0.4670502245426178,"9":-0.20359008014202118}}}],"outputLookup":true,"inputLookup":true,"activation":"sigmoid","trainOpts":{"iterations":1000,"errorThresh":0.005,"log":false,"logPeriod":10,"learningRate":0.3,"momentum":0.1,"callbackPeriod":10,"beta1":0.9,"beta2":0.999,"epsilon":1e-8}}
